\data\
ngram 1=515
ngram 2=1024
ngram 3=512

\1-grams:
-3.3104858	<unk>	0
0	<s>	-0.32759374
-0.3018782	</s>	0
-3.0098777	akalman	-0.059747394
-3.0098777	nakarmi	-0.059747394
-3.0098777	gugun	-0.059747394
-3.0098777	aupcharik	-0.059747394
-3.0098777	shiksha	-0.059747394
-3.0098777	madusan	-0.059747394
-3.0098777	thagu	-0.059747394
-3.0098777	kul	-0.059747394
-3.0098777	purkhaya	-0.059747394
-3.0098777	lajgayapakhen	-0.059747394
-3.0098777	byawaharik	-0.059747394
-3.0098777	gyan	-0.059747394
-3.0098777	wa	-0.059747394
-3.0098777	sip	-0.059747394
-3.0098777	munkadim	-0.059747394
-3.0098777	thwayaka	-0.059747394
-3.0098777	chamh	-0.059747394
-3.0098777	prabidhi	-0.059747394
-3.0098777	bikas	-0.059747394
-3.0098777	ale	-0.059747394
-3.0098777	sudharaya	-0.059747394
-3.0098777	khalay	-0.059747394
-3.0098777	katham	-0.059747394
-3.0098777	yogdan	-0.059747394
-3.0098777	biyawm	-0.059747394
-3.0098777	byaktitwa	-0.059747394
-3.0098777	kha	-0.059747394
-3.0098777	.	-0.059747394
-3.0098777	san	-0.059747394
-3.0098777	1946	-0.059747394
-3.0098777	sa	-0.059747394
-3.0098777	swanigalay	-0.059747394
-3.0098777	janma	-0.059747394
-3.0098777	jumh	-0.059747394
-3.0098777	bhaju	-0.059747394
-3.0098777	gopalman	-0.059747394
-3.0098777	nakarmiya	-0.059747394
-3.0098777	kay	-0.059747394
-3.0098777	kathmandu	-0.059747394
-3.0098777	metal	-0.059747394
-3.0098777	industries	-0.059747394
-3.0098777	nanya	-0.059747394
-3.0098777	he	-0.059747394
-3.0098777	jyas	-0.059747394
-3.0098777	nyakawayachwumha	-0.059747394
-3.0098777	thumha	-0.059747394
-3.0098777	bhajun	-0.059747394
-3.0098777	bishesh	-0.059747394
-3.0098777	yana	-0.059747394
-3.0098777	jal	-0.059747394
-3.0098777	shakti	-0.059747394
-3.0098777	upayogya	-0.059747394
-3.0098777	jwalay	-0.059747394
-3.0098777	paramparagat	-0.059747394
-3.0098777	laghu	-0.059747394
-3.0098777	sanchalanaya	-0.059747394
-3.0098777	adhunik	-0.059747394
-3.0098777	sudharayayegu	-0.059747394
-3.0098777	lagham	-0.059747394
-3.0098777	bidyut	-0.059747394
-3.0098777	nyathanebahagu	-0.059747394
-3.0098777	yagu	-0.059747394
-3.0098777	kathanya	-0.059747394
-3.0098777	chichigwahgu	-0.059747394
-3.0098777	turbine	-0.059747394
-3.0098777	designya	-0.059747394
-3.0098777	thujwahgu	-0.059747394
-3.0098777	sirjanatmak	-0.059747394
-3.0098777	jyaa	-0.059747394
-3.0098777	nintim	-0.059747394
-3.0098777	nandangu	-0.059747394
-3.0098777	rolfex	-0.059747394
-3.0098777	sirpah	-0.059747394
-3.0098777	right	-0.059747394
-3.0098777	livhud	-0.059747394
-3.0098777	awardpakhen	-0.059747394
-3.0098777	antarastriya	-0.059747394
-3.0098777	starya	-0.059747394
-3.0098777	samman	-0.059747394
-3.0098777	byugu	-0.059747394
-3.0098777	2017	-0.059747394
-3.0098777	madugu	-0.059747394
-3.0098777	amareshman	-0.059747394
-3.0098777	pradhanang	-0.059747394
-3.0098777	yanya	-0.059747394
-3.0098777	thapathali	-0.059747394
-3.0098777	abuju	-0.059747394
-3.0098777	bisheshwar	-0.059747394
-3.0098777	man	-0.059747394
-3.0098777	bishnudeviyaapakhen	-0.059747394
-3.0098777	dumh	-0.059747394
-3.0098777	kaymcha	-0.059747394
-3.0098777	–	-0.059747394
-3.0098777	1956	-0.059747394
-3.0098777	patna	-0.059747394
-3.0098777	vishwavidyalayapakhen	-0.059747394
-3.0098777	bsc	-0.059747394
-3.0098777	utirna	-0.059747394
-3.0098777	samyuktarajya	-0.059747394
-3.0098777	amerikaya	-0.059747394
-3.0098777	uttar	-0.059747394
-3.0098777	kyalorina	-0.059747394
-3.0098777	ms	-0.059747394
-3.0098777	yanadigu	-0.059747394
-3.0098777	vanavasti	-0.059747394
-3.0098777	vigyanaya	-0.059747394
-3.0098777	gyaata	-0.059747394
-3.0098777	amareshjun	-0.059747394
-3.0098777	rashtriya	-0.059747394
-3.0098777	krishi	-0.059747394
-3.0098777	anusandhan	-0.059747394
-3.0098777	kendray	-0.059747394
-3.0098777	chwanah	-0.059747394
-3.0098777	byavasthapan	-0.059747394
-3.0098777	nitiya	-0.059747394
-3.0098777	jwahmadugu	-0.059747394
-3.0098777	tiba	-0.059747394
-3.0098777	biyawangu	-0.059747394
-3.0098777	keshavraj	-0.059747394
-3.0098777	rajbhandari	-0.059747394
-3.0098777	viratnagaraya	-0.059747394
-3.0098777	madanraj	-0.059747394
-3.0098777	mayju	-0.059747394
-3.0098777	kadamdeviya	-0.059747394
-3.0098777	1948	-0.059747394
-3.0098777	boogu	-0.059747394
-3.0098777	tribhuvan	-0.059747394
-3.0098777	snatakottar	-0.059747394
-3.0098777	kwachayeke	-0.059747394
-3.0098777	dhunkaḥ	-0.059747394
-3.0098777	japanaya	-0.059747394
-3.0098777	tokyo	-0.059747394
-3.0098777	vigyan	-0.059747394
-3.0098777	vidhay	-0.059747394
-3.0098777	uchchashiksha	-0.059747394
-3.0098777	bwanadil	-0.059747394
-3.0098777	ayurvedic	-0.059747394
-3.0098777	swan,	-0.059747394
-3.0098777	sima	-0.059747394
-3.0098777	jadibutiya	-0.059747394
-3.0098777	visheshagya	-0.059747394
-3.0098777	khat	-0.059747394
-3.0098777	napnapan	-0.059747394
-3.0098777	charan	-0.059747394
-3.0098777	kshetraya	-0.059747394
-3.0098777	paryavaran	-0.059747394
-3.0098777	sambandhi	-0.059747394
-3.0098777	apalam	-0.059747394
-3.0098777	nhununhugu	-0.059747394
-3.0098777	jadibuti	-0.059747394
-3.0098777	simatat	-0.059747394
-3.0098777	malaḥ	-0.059747394
-3.0098777	nepalay	-0.059747394
-3.0098777	dugu	-0.059747394
-3.0098777	vanaspatıya	-0.059747394
-3.0098777	sambandhay	-0.059747394
-3.0098777	biskan	-0.059747394
-3.0098777	saphu	-0.059747394
-3.0098777	nan	-0.059747394
-3.0098777	chwyadigu	-0.059747394
-3.0098777	du	-0.059747394
-3.0098777	kesharilaxmi	-0.059747394
-3.0098777	manandhar	-0.059747394
-3.0098777	yan,	-0.059747394
-3.0098777	asanya	-0.059747394
-3.0098777	jyotiratna	-0.059747394
-3.0098777	veti	-0.059747394
-3.0098777	laxmiya	-0.059747394
-3.0098777	mhaymachha	-0.059747394
-3.0098777	1942	-0.059747394
-3.0098777	boomha	-0.059747394
-3.0098777	swan–simaya	-0.059747394
-3.0098777	rog	-0.059747394
-3.0098777	khyaḥya	-0.059747394
-3.0098777	thwayakalan	-0.059747394
-3.0098777	dakkale	-0.059747394
-3.0098777	nhapan	-0.059747394
-3.0098777	vanpastiya	-0.059747394
-3.0098777	lway	-0.059747394
-3.0098777	vishleshan	-0.059747394
-3.0098777	yaigu	-0.059747394
-3.0098777	prayogshala	-0.059747394
-3.0098777	yanadil	-0.059747394
-3.0098777	mhukancha	-0.059747394
-3.0098777	(chyau)ya	-0.059747394
-3.0098777	khetiyayegu	-0.059747394
-3.0098777	vidhi	-0.059747394
-3.0098777	thukiya	-0.059747394
-3.0098777	byawasayikaran	-0.059747394
-3.0098777	yayeguli	-0.059747394
-3.0098777	bhumika	-0.059747394
-3.0098777	mhita	-0.059747394
-3.0098777	dil	-0.059747394
-3.0098777	vidyavaridhi	-0.059747394
-3.0098777	upadhi	-0.059747394
-3.0098777	kaḥmha	-0.059747394
-3.0098777	nepaḥmi	-0.059747394
-3.0098777	misa	-0.059747394
-3.0098777	vaigyanikapinigu	-0.059747394
-3.0098777	chhagu	-0.059747394
-3.0098777	sanjal	-0.059747394
-3.0098777	niswaneguli	-0.059747394
-3.0098777	nhaluwah	-0.059747394
-3.0098777	kishorkumar	-0.059747394
-3.0098777	pradhan	-0.059747394
-3.0098777	dambarbahadur	-0.059747394
-3.0098777	krishnakumariya	-0.059747394
-3.0098777	1944	-0.059747394
-3.0098777	bharataya	-0.059747394
-3.0098777	madrasan	-0.059747394
-3.0098777	danta	-0.059747394
-3.0098777	chikitsaya	-0.059747394
-3.0098777	snatak	-0.059747394
-3.0098777	juyawaḥmha	-0.059747394
-3.0098777	lipa	-0.059747394
-3.0098777	1977	-0.059747394
-3.0098777	velayatan	-0.059747394
-3.0098777	frcs	-0.059747394
-3.0098777	kayadil	-0.059747394
-3.0098777	athehe	-0.059747394
-3.0098777	irelandya	-0.059747394
-3.0098777	thuguhe	-0.059747394
-3.0098777	bishay	-0.059747394
-3.0098777	kayaḥ	-0.059747394
-3.0098777	uchcha	-0.059747394
-3.0098777	visheshataḥ	-0.059747394
-3.0098777	mhutu	-0.059747394
-3.0098777	khwaḥya	-0.059747394
-3.0098777	adhuniktam	-0.059747394
-3.0098777	vidhiya	-0.059747394
-3.0098777	shalyachikitsa	-0.059747394
-3.0098777	pravidhiya	-0.059747394
-3.0098777	nhapamha	-0.059747394
-3.0098777	manu	-0.059747394
-3.0098777	krishnagopal	-0.059747394
-3.0098777	rajvanshi	-0.059747394
-3.0098777	pyafaḥ	-0.059747394
-3.0098777	twaḥya	-0.059747394
-3.0098777	nilparakram	-0.059747394
-3.0098777	devakumariya	-0.059747394
-3.0098777	1940	-0.059747394
-3.0098777	gorakhpuram	-0.059747394
-3.0098777	snatakostar	-0.059747394
-3.0098777	uttirna	-0.059747394
-3.0098777	germaniya	-0.059747394
-3.0098777	haymburgapakhen	-0.059747394
-3.0098777	jaliykrishi	-0.059747394
-3.0098777	puwankawaḥgu	-0.059747394
-3.0098777	byawasthit	-0.059747394
-3.0098777	vaigyanik	-0.059747394
-3.0098777	pravidhikathaḥ	-0.059747394
-3.0098777	matsya	-0.059747394
-3.0098777	palanayat	-0.059747394
-3.0098777	nhyankeguli	-0.059747394
-3.0098777	khaḥ,	-0.059747394
-3.0098777	nepaḥdune	-0.059747394
-3.0098777	daipin	-0.059747394
-3.0098777	nyaya	-0.059747394
-3.0098777	prakaraya	-0.059747394
-3.0098777	dhalaḥ	-0.059747394
-3.0098777	palan	-0.059747394
-3.0098777	kriti	-0.059747394
-3.0098777	pithana	-0.059747394
-3.0098777	digu	-0.059747394
-3.0098777	krishna	-0.059747394
-3.0098777	maharajganj,	-0.059747394
-3.0098777	jagatnarayan	-0.059747394
-3.0098777	tulsimayaya	-0.059747394
-3.0098777	1969	-0.059747394
-3.0098777	kwachayeka	-0.059747394
-3.0098777	dimha	-0.059747394
-3.0098777	velayataya	-0.059747394
-3.0098777	southampton	-0.059747394
-3.0098777	vaidyutik	-0.059747394
-3.0098777	rasayanshastra	-0.059747394
-3.0098777	kayadigu	-0.059747394
-3.0098777	thugu	-0.059747394
-3.0098777	bishayas	-0.059747394
-3.0098777	nepayah	-0.059747394
-3.0098777	taḥdanatak	-0.059747394
-3.0098777	trivivi	-0.059747394
-3.0098777	antargat	-0.059747394
-3.0098777	pradhyapan	-0.059747394
-3.0098777	sevay	-0.059747394
-3.0098777	jya	-0.059747394
-3.0098777	kularatna	-0.059747394
-3.0098777	tuladhar	-0.059747394
-3.0098777	asan,	-0.059747394
-3.0098777	asaratna	-0.059747394
-3.0098777	laxmimayaya	-0.059747394
-3.0098777	1918	-0.059747394
-3.0098777	1937	-0.059747394
-3.0098777	yanawaḥmha	-0.059747394
-3.0098777	engineer	-0.059747394
-3.0098777	swanigalan	-0.059747394
-3.0098777	pinewanegu	-0.059747394
-3.0098777	lanhpu	-0.059747394
-3.0098777	rajpath	-0.059747394
-3.0098777	dayakegu	-0.059747394
-3.0098777	jyay	-0.059747394
-3.0098777	nepaḥyapakhen	-0.059747394
-3.0098777	mu	-0.059747394
-3.0098777	pravidhik	-0.059747394
-3.0098777	pramukh	-0.059747394
-3.0098777	juyah	-0.059747394
-3.0098777	sarvajanik	-0.059747394
-3.0098777	nirmaan	-0.059747394
-3.0098777	vibhagya	-0.059747394
-3.0098777	1951	-0.059747394
-3.0098777	nisen	-0.059747394
-3.0098777	1957	-0.059747394
-3.0098777	tak	-0.059747394
-3.0098777	bhalakaya	-0.059747394
-3.0098777	nhusatanisen	-0.059747394
-3.0098777	mumu	-0.059747394
-3.0098777	satakat	-0.059747394
-3.0098777	mhitadil	-0.059747394
-3.0098777	sevakaly	-0.059747394
-3.0098777	london	-0.059747394
-3.0098777	wanaḥ	-0.059747394
-3.0098777	architectural	-0.059747394
-3.0098777	association	-0.059747394
-3.0098777	school	-0.059747394
-3.0098777	of	-0.059747394
-3.0098777	architecturepakhen	-0.059747394
-3.0098777	bwanawal	-0.059747394
-3.0098777	wayakah	-0.059747394
-3.0098777	vishwavidyalaya,	-0.059747394
-3.0098777	engineering	-0.059747394
-3.0098777	sansthanya	-0.059747394
-3.0098777	dean	-0.059747394
-3.0098777	juyadil	-0.059747394
-3.0098777	ramakrishna	-0.059747394
-3.0098777	sharmanap	-0.059747394
-3.0098777	jaanaḥ	-0.059747394
-3.0098777	rajmargaya	-0.059747394
-3.0098777	design	-0.059747394
-3.0098777	nirmaansambandhay	-0.059747394
-3.0098777	nirdeshika	-0.059747394
-3.0098777	pikaya	-0.059747394
-3.0098777	amirbahadur	-0.059747394
-3.0098777	yagyabahadur	-0.059747394
-3.0098777	kumari	-0.059747394
-3.0098777	shresthaya	-0.059747394
-3.0098777	pradhanya	-0.059747394
-3.0098777	yenya	-0.059747394
-3.0098777	faskiyabay	-0.059747394
-3.0098777	1934	-0.059747394
-3.0098777	jugu	-0.059747394
-3.0098777	bharat	-0.059747394
-3.0098777	,	-0.059747394
-3.0098777	vishva	-0.059747394
-3.0098777	hindu	-0.059747394
-3.0098777	sanra	-0.059747394
-3.0098777	1955sa	-0.059747394
-3.0098777	aushadhi	-0.059747394
-3.0098777	vigyanay	-0.059747394
-3.0098777	1966	-0.059747394
-3.0098777	vishwavidyalay	-0.059747394
-3.0098777	velayatapakhen	-0.059747394
-3.0098777	vidyawaridhi	-0.059747394
-3.0098777	jul	-0.059747394
-3.0098777	wasah	-0.059747394
-3.0098777	utpadanaya	-0.059747394
-3.0098777	udyog	-0.059747394
-3.0098777	bikasayayeguli	-0.059747394
-3.0098777	thwayakahya	-0.059747394
-3.0098777	lha	-0.059747394
-3.0098777	visheshyanah	-0.059747394
-3.0098777	ukiya	-0.059747394
-3.0098777	lidhasay	-0.059747394
-3.0098777	wasahya	-0.059747394
-3.0098777	nhyakegu	-0.059747394
-3.0098777	vigyansambandhi	-0.059747394
-3.0098777	niti	-0.059747394
-3.0098777	dayakeguli	-0.059747394
-3.0098777	amirbahadurya	-0.059747394
-3.0098777	ukatham	-0.059747394
-3.0098777	nhthanebahagu	-0.059747394
-3.0098777	nepa	-0.059747394
-3.0098777	sarkaraya	-0.059747394
-3.0098777	uchchastariya	-0.059747394
-3.0098777	sallahakar	-0.059747394
-3.0098777	samitiya	-0.059747394
-3.0098777	dujah	-0.059747394
-3.0098777	juyadigu	-0.059747394
-3.0098777	tai	-0.059747394
-3.0098777	shahi	-0.059747394
-3.0098777	limitedaya	-0.059747394
-3.0098777	karyakari	-0.059747394
-3.0098777	nideshak	-0.059747394
-3.0098777	ronasht	-0.059747394
-3.0098777	rikasht	-0.059747394
-3.0098777	shodh	-0.059747394
-3.0098777	sansthayah	-0.059747394
-3.0098777	amritprasad	-0.059747394
-3.0098777	vishayagat	-0.059747394
-3.0098777	lyakham	-0.059747394
-3.0098777	rasayanashastray	-0.059747394
-3.0098777	vigya	-0.059747394
-3.0098777	abu	-0.059747394
-3.0098777	ajarman	-0.059747394
-3.0098777	ma	-0.059747394
-3.0098777	mohanmayaya	-0.059747394
-3.0098777	kokham	-0.059747394
-3.0098777	yen	-0.059747394
-3.0098777	thambahis	-0.059747394
-3.0098777	vishayaya	-0.059747394
-3.0098777	prasar	-0.059747394
-3.0098777	prachar	-0.059747394
-3.0098777	yayegu	-0.059747394
-3.0098777	tatunah	-0.059747394
-3.0098777	janastaram	-0.059747394
-3.0098777	public	-0.059747394
-3.0098777	science	-0.059747394
-3.0098777	college	-0.059747394
-3.0098777	swaneguli	-0.059747394
-3.0098777	nhyaluwa	-0.059747394
-3.0098777	athe	-0.059747394
-3.0098777	nhupustayapint	-0.059747394
-3.0098777	vishay	-0.059747394
-3.0098777	adhyayan	-0.059747394
-3.0098777	yayet	-0.059747394
-3.0098777	abhiyan	-0.059747394
-3.0098777	nhyakal	-0.059747394
-3.0098777	yuropaya	-0.059747394
-3.0098777	alps	-0.059747394
-3.0098777	pahadi	-0.059747394
-3.0098777	lagay	-0.059747394
-3.0098777	hawai	-0.059747394
-3.0098777	durghatanay	-0.059747394
-3.0098777	lanah	-0.059747394
-3.0098777	mant	-0.059747394
-3.0098777	thwayakal	-0.059747394
-3.0098777	shikshaya	-0.059747394
-3.0098777	yanawanggu	-0.059747394
-3.0098777	tibayah	-0.059747394
-3.0098777	hanabana	-0.059747394
-3.0098777	collegeyat	-0.059747394
-3.0098777	amrit	-0.059747394
-3.0098777	campus	-0.059747394
-3.0098777	naan	-0.059747394
-3.0098777	hilabil	-0.059747394
-3.0098777	gairasarkari	-0.059747394
-3.0098777	staray	-0.059747394
-3.0098777	vidyarthipinigu	-0.059747394
-3.0098777	suvidhaya	-0.059747394
-3.0098777	chhatravas	-0.059747394
-3.0098777	amritprasadya	-0.059747394
-3.0098777	gwasah	-0.059747394
-3.0098777	dhwasahgu	-0.059747394
-3.0098777	tri–chandra	-0.059747394
-3.0098777	collegey	-0.059747394
-3.0098777	rasayanashastraya	-0.059747394
-3.0098777	pradhyapak	-0.059747394
-3.0098777	juyadi	-0.059747394
-3.0098777	dhunkumh	-0.059747394
-3.0098777	chhum	-0.059747394
-3.0098777	i	-0.059747394
-3.0098777	shri	-0.059747394
-3.0098777	5	-0.059747394
-3.0098777	sarkar	-0.059747394
-3.0098777	vanijya	-0.059747394
-3.0098777	up–sachiv	-0.059747394
-3.0098777	sewa	-0.059747394
-3.0098777	ashtaman	-0.059747394
-3.0098777	kalkatta	-0.059747394
-3.0098777	madhyamam	-0.059747394
-3.0098777	wasyahgu	-0.059747394
-3.0098777	lwaya	-0.059747394
-3.0098777	chandrashamsher	-0.059747394
-3.0098777	pradhanmantri	-0.059747394
-3.0098777	juyachwangu	-0.059747394
-3.0098777	ilay	-0.059747394
-3.0098777	darbaraduneyapim	-0.059747394
-3.0098777	manutayat	-0.059747394
-3.0098777	samasya	-0.059747394
-3.0098777	juibale	-0.059747394
-3.0098777	niji	-0.059747394
-3.0098777	chikitsak	-0.059747394
-3.0098777	thwayakayat	-0.059747394
-3.0098777	lajgah	-0.059747394
-3.0098777	biyatahgu	-0.059747394
-3.0098777	yeny	-0.059747394
-3.0098777	naghatwahya	-0.059747394
-3.0098777	bhanin	-0.059747394
-3.0098777	khalahya	-0.059747394
-3.0098777	bwanavayedhunkah	-0.059747394
-3.0098777	thyamdu	-0.059747394
-3.0098777	twayalay	-0.059747394
-3.0098777	desay	-0.059747394
-3.0098777	nhapanggu	-0.059747394
-3.0098777	wasayayegu	-0.059747394
-3.0098777	klinik	-0.059747394
-3.0098777	chayekugu	-0.059747394
-3.0098777	than	-0.059747394
-3.0098777	manutay	-0.059747394
-3.0098777	nhugu	-0.059747394
-3.0098777	waa	-0.059747394
-3.0098777	hilemahsah	-0.059747394
-3.0098777	prabandh	-0.059747394
-3.0098777	ashtamanaya	-0.059747394
-3.0098777	prashikshanay	-0.059747394
-3.0098777	naghahya	-0.059747394
-3.0098777	bhani	-0.059747394
-3.0098777	kaymasta	-0.059747394
-3.0098777	gyanapakhe	-0.059747394
-3.0098777	nipun	-0.059747394
-3.0098777	lichwah	-0.059747394
-3.0098777	naghatwah	-0.059747394
-3.0098777	vadayakegu	-0.059747394
-3.0098777	kendra	-0.059747394

\2-grams:
-0.24917188	akalman </s>	0
-0.24917188	nakarmi </s>	0
-0.24917188	gugun </s>	0
-0.24917188	aupcharik </s>	0
-0.24917188	shiksha </s>	0
-0.24917188	madusan </s>	0
-0.24917188	thagu </s>	0
-0.24917188	kul </s>	0
-0.24917188	purkhaya </s>	0
-0.24917188	lajgayapakhen </s>	0
-0.24917188	byawaharik </s>	0
-0.24917188	gyan </s>	0
-0.24917188	wa </s>	0
-0.24917188	sip </s>	0
-0.24917188	munkadim </s>	0
-0.24917188	thwayaka </s>	0
-0.24917188	chamh </s>	0
-0.24917188	prabidhi </s>	0
-0.24917188	bikas </s>	0
-0.24917188	ale </s>	0
-0.24917188	sudharaya </s>	0
-0.24917188	khalay </s>	0
-0.24917188	katham </s>	0
-0.24917188	yogdan </s>	0
-0.24917188	biyawm </s>	0
-0.24917188	byaktitwa </s>	0
-0.24917188	kha </s>	0
-0.24917188	. </s>	0
-0.24917188	san </s>	0
-0.24917188	1946 </s>	0
-0.24917188	sa </s>	0
-0.24917188	swanigalay </s>	0
-0.24917188	janma </s>	0
-0.24917188	jumh </s>	0
-0.24917188	bhaju </s>	0
-0.24917188	gopalman </s>	0
-0.24917188	nakarmiya </s>	0
-0.24917188	kay </s>	0
-0.24917188	kathmandu </s>	0
-0.24917188	metal </s>	0
-0.24917188	industries </s>	0
-0.24917188	nanya </s>	0
-0.24917188	he </s>	0
-0.24917188	jyas </s>	0
-0.24917188	nyakawayachwumha </s>	0
-0.24917188	thumha </s>	0
-0.24917188	bhajun </s>	0
-0.24917188	bishesh </s>	0
-0.24917188	yana </s>	0
-0.24917188	jal </s>	0
-0.24917188	shakti </s>	0
-0.24917188	upayogya </s>	0
-0.24917188	jwalay </s>	0
-0.24917188	paramparagat </s>	0
-0.24917188	laghu </s>	0
-0.24917188	sanchalanaya </s>	0
-0.24917188	adhunik </s>	0
-0.24917188	sudharayayegu </s>	0
-0.24917188	lagham </s>	0
-0.24917188	bidyut </s>	0
-0.24917188	nyathanebahagu </s>	0
-0.24917188	yagu </s>	0
-0.24917188	kathanya </s>	0
-0.24917188	chichigwahgu </s>	0
-0.24917188	turbine </s>	0
-0.24917188	designya </s>	0
-0.24917188	thujwahgu </s>	0
-0.24917188	sirjanatmak </s>	0
-0.24917188	jyaa </s>	0
-0.24917188	nintim </s>	0
-0.24917188	nandangu </s>	0
-0.24917188	rolfex </s>	0
-0.24917188	sirpah </s>	0
-0.24917188	right </s>	0
-0.24917188	livhud </s>	0
-0.24917188	awardpakhen </s>	0
-0.24917188	antarastriya </s>	0
-0.24917188	starya </s>	0
-0.24917188	samman </s>	0
-0.24917188	byugu </s>	0
-0.24917188	2017 </s>	0
-0.24917188	madugu </s>	0
-0.24917188	amareshman </s>	0
-0.24917188	pradhanang </s>	0
-0.24917188	yanya </s>	0
-0.24917188	thapathali </s>	0
-0.24917188	abuju </s>	0
-0.24917188	bisheshwar </s>	0
-0.24917188	man </s>	0
-0.24917188	bishnudeviyaapakhen </s>	0
-0.24917188	dumh </s>	0
-0.24917188	kaymcha </s>	0
-0.24917188	– </s>	0
-0.24917188	1956 </s>	0
-0.24917188	patna </s>	0
-0.24917188	vishwavidyalayapakhen </s>	0
-0.24917188	bsc </s>	0
-0.24917188	utirna </s>	0
-0.24917188	samyuktarajya </s>	0
-0.24917188	amerikaya </s>	0
-0.24917188	uttar </s>	0
-0.24917188	kyalorina </s>	0
-0.24917188	ms </s>	0
-0.24917188	yanadigu </s>	0
-0.24917188	vanavasti </s>	0
-0.24917188	vigyanaya </s>	0
-0.24917188	gyaata </s>	0
-0.24917188	amareshjun </s>	0
-0.24917188	rashtriya </s>	0
-0.24917188	krishi </s>	0
-0.24917188	anusandhan </s>	0
-0.24917188	kendray </s>	0
-0.24917188	chwanah </s>	0
-0.24917188	byavasthapan </s>	0
-0.24917188	nitiya </s>	0
-0.24917188	jwahmadugu </s>	0
-0.24917188	tiba </s>	0
-0.24917188	biyawangu </s>	0
-0.24917188	keshavraj </s>	0
-0.24917188	rajbhandari </s>	0
-0.24917188	viratnagaraya </s>	0
-0.24917188	madanraj </s>	0
-0.24917188	mayju </s>	0
-0.24917188	kadamdeviya </s>	0
-0.24917188	1948 </s>	0
-0.24917188	boogu </s>	0
-0.24917188	tribhuvan </s>	0
-0.24917188	snatakottar </s>	0
-0.24917188	kwachayeke </s>	0
-0.24917188	dhunkaḥ </s>	0
-0.24917188	japanaya </s>	0
-0.24917188	tokyo </s>	0
-0.24917188	vigyan </s>	0
-0.24917188	vidhay </s>	0
-0.24917188	uchchashiksha </s>	0
-0.24917188	bwanadil </s>	0
-0.24917188	ayurvedic </s>	0
-0.24917188	swan, </s>	0
-0.24917188	sima </s>	0
-0.24917188	jadibutiya </s>	0
-0.24917188	visheshagya </s>	0
-0.24917188	khat </s>	0
-0.24917188	napnapan </s>	0
-0.24917188	charan </s>	0
-0.24917188	kshetraya </s>	0
-0.24917188	paryavaran </s>	0
-0.24917188	sambandhi </s>	0
-0.24917188	apalam </s>	0
-0.24917188	nhununhugu </s>	0
-0.24917188	jadibuti </s>	0
-0.24917188	simatat </s>	0
-0.24917188	malaḥ </s>	0
-0.24917188	nepalay </s>	0
-0.24917188	dugu </s>	0
-0.24917188	vanaspatıya </s>	0
-0.24917188	sambandhay </s>	0
-0.24917188	biskan </s>	0
-0.24917188	saphu </s>	0
-0.24917188	nan </s>	0
-0.24917188	chwyadigu </s>	0
-0.24917188	du </s>	0
-0.24917188	kesharilaxmi </s>	0
-0.24917188	manandhar </s>	0
-0.24917188	yan, </s>	0
-0.24917188	asanya </s>	0
-0.24917188	jyotiratna </s>	0
-0.24917188	veti </s>	0
-0.24917188	laxmiya </s>	0
-0.24917188	mhaymachha </s>	0
-0.24917188	1942 </s>	0
-0.24917188	boomha </s>	0
-0.24917188	swan–simaya </s>	0
-0.24917188	rog </s>	0
-0.24917188	khyaḥya </s>	0
-0.24917188	thwayakalan </s>	0
-0.24917188	dakkale </s>	0
-0.24917188	nhapan </s>	0
-0.24917188	vanpastiya </s>	0
-0.24917188	lway </s>	0
-0.24917188	vishleshan </s>	0
-0.24917188	yaigu </s>	0
-0.24917188	prayogshala </s>	0
-0.24917188	yanadil </s>	0
-0.24917188	mhukancha </s>	0
-0.24917188	(chyau)ya </s>	0
-0.24917188	khetiyayegu </s>	0
-0.24917188	vidhi </s>	0
-0.24917188	thukiya </s>	0
-0.24917188	byawasayikaran </s>	0
-0.24917188	yayeguli </s>	0
-0.24917188	bhumika </s>	0
-0.24917188	mhita </s>	0
-0.24917188	dil </s>	0
-0.24917188	vidyavaridhi </s>	0
-0.24917188	upadhi </s>	0
-0.24917188	kaḥmha </s>	0
-0.24917188	nepaḥmi </s>	0
-0.24917188	misa </s>	0
-0.24917188	vaigyanikapinigu </s>	0
-0.24917188	chhagu </s>	0
-0.24917188	sanjal </s>	0
-0.24917188	niswaneguli </s>	0
-0.24917188	nhaluwah </s>	0
-0.24917188	kishorkumar </s>	0
-0.24917188	pradhan </s>	0
-0.24917188	dambarbahadur </s>	0
-0.24917188	krishnakumariya </s>	0
-0.24917188	1944 </s>	0
-0.24917188	bharataya </s>	0
-0.24917188	madrasan </s>	0
-0.24917188	danta </s>	0
-0.24917188	chikitsaya </s>	0
-0.24917188	snatak </s>	0
-0.24917188	juyawaḥmha </s>	0
-0.24917188	lipa </s>	0
-0.24917188	1977 </s>	0
-0.24917188	velayatan </s>	0
-0.24917188	frcs </s>	0
-0.24917188	kayadil </s>	0
-0.24917188	athehe </s>	0
-0.24917188	irelandya </s>	0
-0.24917188	thuguhe </s>	0
-0.24917188	bishay </s>	0
-0.24917188	kayaḥ </s>	0
-0.24917188	uchcha </s>	0
-0.24917188	visheshataḥ </s>	0
-0.24917188	mhutu </s>	0
-0.24917188	khwaḥya </s>	0
-0.24917188	adhuniktam </s>	0
-0.24917188	vidhiya </s>	0
-0.24917188	shalyachikitsa </s>	0
-0.24917188	pravidhiya </s>	0
-0.24917188	nhapamha </s>	0
-0.24917188	manu </s>	0
-0.24917188	krishnagopal </s>	0
-0.24917188	rajvanshi </s>	0
-0.24917188	pyafaḥ </s>	0
-0.24917188	twaḥya </s>	0
-0.24917188	nilparakram </s>	0
-0.24917188	devakumariya </s>	0
-0.24917188	1940 </s>	0
-0.24917188	gorakhpuram </s>	0
-0.24917188	snatakostar </s>	0
-0.24917188	uttirna </s>	0
-0.24917188	germaniya </s>	0
-0.24917188	haymburgapakhen </s>	0
-0.24917188	jaliykrishi </s>	0
-0.24917188	puwankawaḥgu </s>	0
-0.24917188	byawasthit </s>	0
-0.24917188	vaigyanik </s>	0
-0.24917188	pravidhikathaḥ </s>	0
-0.24917188	matsya </s>	0
-0.24917188	palanayat </s>	0
-0.24917188	nhyankeguli </s>	0
-0.24917188	khaḥ, </s>	0
-0.24917188	nepaḥdune </s>	0
-0.24917188	daipin </s>	0
-0.24917188	nyaya </s>	0
-0.24917188	prakaraya </s>	0
-0.24917188	dhalaḥ </s>	0
-0.24917188	palan </s>	0
-0.24917188	kriti </s>	0
-0.24917188	pithana </s>	0
-0.24917188	digu </s>	0
-0.24917188	krishna </s>	0
-0.24917188	maharajganj, </s>	0
-0.24917188	jagatnarayan </s>	0
-0.24917188	tulsimayaya </s>	0
-0.24917188	1969 </s>	0
-0.24917188	kwachayeka </s>	0
-0.24917188	dimha </s>	0
-0.24917188	velayataya </s>	0
-0.24917188	southampton </s>	0
-0.24917188	vaidyutik </s>	0
-0.24917188	rasayanshastra </s>	0
-0.24917188	kayadigu </s>	0
-0.24917188	thugu </s>	0
-0.24917188	bishayas </s>	0
-0.24917188	nepayah </s>	0
-0.24917188	taḥdanatak </s>	0
-0.24917188	trivivi </s>	0
-0.24917188	antargat </s>	0
-0.24917188	pradhyapan </s>	0
-0.24917188	sevay </s>	0
-0.24917188	jya </s>	0
-0.24917188	kularatna </s>	0
-0.24917188	tuladhar </s>	0
-0.24917188	asan, </s>	0
-0.24917188	asaratna </s>	0
-0.24917188	laxmimayaya </s>	0
-0.24917188	1918 </s>	0
-0.24917188	1937 </s>	0
-0.24917188	yanawaḥmha </s>	0
-0.24917188	engineer </s>	0
-0.24917188	swanigalan </s>	0
-0.24917188	pinewanegu </s>	0
-0.24917188	lanhpu </s>	0
-0.24917188	rajpath </s>	0
-0.24917188	dayakegu </s>	0
-0.24917188	jyay </s>	0
-0.24917188	nepaḥyapakhen </s>	0
-0.24917188	mu </s>	0
-0.24917188	pravidhik </s>	0
-0.24917188	pramukh </s>	0
-0.24917188	juyah </s>	0
-0.24917188	sarvajanik </s>	0
-0.24917188	nirmaan </s>	0
-0.24917188	vibhagya </s>	0
-0.24917188	1951 </s>	0
-0.24917188	nisen </s>	0
-0.24917188	1957 </s>	0
-0.24917188	tak </s>	0
-0.24917188	bhalakaya </s>	0
-0.24917188	nhusatanisen </s>	0
-0.24917188	mumu </s>	0
-0.24917188	satakat </s>	0
-0.24917188	mhitadil </s>	0
-0.24917188	sevakaly </s>	0
-0.24917188	london </s>	0
-0.24917188	wanaḥ </s>	0
-0.24917188	architectural </s>	0
-0.24917188	association </s>	0
-0.24917188	school </s>	0
-0.24917188	of </s>	0
-0.24917188	architecturepakhen </s>	0
-0.24917188	bwanawal </s>	0
-0.24917188	wayakah </s>	0
-0.24917188	vishwavidyalaya, </s>	0
-0.24917188	engineering </s>	0
-0.24917188	sansthanya </s>	0
-0.24917188	dean </s>	0
-0.24917188	juyadil </s>	0
-0.24917188	ramakrishna </s>	0
-0.24917188	sharmanap </s>	0
-0.24917188	jaanaḥ </s>	0
-0.24917188	rajmargaya </s>	0
-0.24917188	design </s>	0
-0.24917188	nirmaansambandhay </s>	0
-0.24917188	nirdeshika </s>	0
-0.24917188	pikaya </s>	0
-0.24917188	amirbahadur </s>	0
-0.24917188	yagyabahadur </s>	0
-0.24917188	kumari </s>	0
-0.24917188	shresthaya </s>	0
-0.24917188	pradhanya </s>	0
-0.24917188	yenya </s>	0
-0.24917188	faskiyabay </s>	0
-0.24917188	1934 </s>	0
-0.24917188	jugu </s>	0
-0.24917188	bharat </s>	0
-0.24917188	, </s>	0
-0.24917188	vishva </s>	0
-0.24917188	hindu </s>	0
-0.24917188	sanra </s>	0
-0.24917188	1955sa </s>	0
-0.24917188	aushadhi </s>	0
-0.24917188	vigyanay </s>	0
-0.24917188	1966 </s>	0
-0.24917188	vishwavidyalay </s>	0
-0.24917188	velayatapakhen </s>	0
-0.24917188	vidyawaridhi </s>	0
-0.24917188	jul </s>	0
-0.24917188	wasah </s>	0
-0.24917188	utpadanaya </s>	0
-0.24917188	udyog </s>	0
-0.24917188	bikasayayeguli </s>	0
-0.24917188	thwayakahya </s>	0
-0.24917188	lha </s>	0
-0.24917188	visheshyanah </s>	0
-0.24917188	ukiya </s>	0
-0.24917188	lidhasay </s>	0
-0.24917188	wasahya </s>	0
-0.24917188	nhyakegu </s>	0
-0.24917188	vigyansambandhi </s>	0
-0.24917188	niti </s>	0
-0.24917188	dayakeguli </s>	0
-0.24917188	amirbahadurya </s>	0
-0.24917188	ukatham </s>	0
-0.24917188	nhthanebahagu </s>	0
-0.24917188	nepa </s>	0
-0.24917188	sarkaraya </s>	0
-0.24917188	uchchastariya </s>	0
-0.24917188	sallahakar </s>	0
-0.24917188	samitiya </s>	0
-0.24917188	dujah </s>	0
-0.24917188	juyadigu </s>	0
-0.24917188	tai </s>	0
-0.24917188	shahi </s>	0
-0.24917188	limitedaya </s>	0
-0.24917188	karyakari </s>	0
-0.24917188	nideshak </s>	0
-0.24917188	ronasht </s>	0
-0.24917188	rikasht </s>	0
-0.24917188	shodh </s>	0
-0.24917188	sansthayah </s>	0
-0.24917188	amritprasad </s>	0
-0.24917188	vishayagat </s>	0
-0.24917188	lyakham </s>	0
-0.24917188	rasayanashastray </s>	0
-0.24917188	vigya </s>	0
-0.24917188	abu </s>	0
-0.24917188	ajarman </s>	0
-0.24917188	ma </s>	0
-0.24917188	mohanmayaya </s>	0
-0.24917188	kokham </s>	0
-0.24917188	yen </s>	0
-0.24917188	thambahis </s>	0
-0.24917188	vishayaya </s>	0
-0.24917188	prasar </s>	0
-0.24917188	prachar </s>	0
-0.24917188	yayegu </s>	0
-0.24917188	tatunah </s>	0
-0.24917188	janastaram </s>	0
-0.24917188	public </s>	0
-0.24917188	science </s>	0
-0.24917188	college </s>	0
-0.24917188	swaneguli </s>	0
-0.24917188	nhyaluwa </s>	0
-0.24917188	athe </s>	0
-0.24917188	nhupustayapint </s>	0
-0.24917188	vishay </s>	0
-0.24917188	adhyayan </s>	0
-0.24917188	yayet </s>	0
-0.24917188	abhiyan </s>	0
-0.24917188	nhyakal </s>	0
-0.24917188	yuropaya </s>	0
-0.24917188	alps </s>	0
-0.24917188	pahadi </s>	0
-0.24917188	lagay </s>	0
-0.24917188	hawai </s>	0
-0.24917188	durghatanay </s>	0
-0.24917188	lanah </s>	0
-0.24917188	mant </s>	0
-0.24917188	thwayakal </s>	0
-0.24917188	shikshaya </s>	0
-0.24917188	yanawanggu </s>	0
-0.24917188	tibayah </s>	0
-0.24917188	hanabana </s>	0
-0.24917188	collegeyat </s>	0
-0.24917188	amrit </s>	0
-0.24917188	campus </s>	0
-0.24917188	naan </s>	0
-0.24917188	hilabil </s>	0
-0.24917188	gairasarkari </s>	0
-0.24917188	staray </s>	0
-0.24917188	vidyarthipinigu </s>	0
-0.24917188	suvidhaya </s>	0
-0.24917188	chhatravas </s>	0
-0.24917188	amritprasadya </s>	0
-0.24917188	gwasah </s>	0
-0.24917188	dhwasahgu </s>	0
-0.24917188	tri–chandra </s>	0
-0.24917188	collegey </s>	0
-0.24917188	rasayanashastraya </s>	0
-0.24917188	pradhyapak </s>	0
-0.24917188	juyadi </s>	0
-0.24917188	dhunkumh </s>	0
-0.24917188	chhum </s>	0
-0.24917188	i </s>	0
-0.24917188	shri </s>	0
-0.24917188	5 </s>	0
-0.24917188	sarkar </s>	0
-0.24917188	vanijya </s>	0
-0.24917188	up–sachiv </s>	0
-0.24917188	sewa </s>	0
-0.24917188	ashtaman </s>	0
-0.24917188	kalkatta </s>	0
-0.24917188	madhyamam </s>	0
-0.24917188	wasyahgu </s>	0
-0.24917188	lwaya </s>	0
-0.24917188	chandrashamsher </s>	0
-0.24917188	pradhanmantri </s>	0
-0.24917188	juyachwangu </s>	0
-0.24917188	ilay </s>	0
-0.24917188	darbaraduneyapim </s>	0
-0.24917188	manutayat </s>	0
-0.24917188	samasya </s>	0
-0.24917188	juibale </s>	0
-0.24917188	niji </s>	0
-0.24917188	chikitsak </s>	0
-0.24917188	thwayakayat </s>	0
-0.24917188	lajgah </s>	0
-0.24917188	biyatahgu </s>	0
-0.24917188	yeny </s>	0
-0.24917188	naghatwahya </s>	0
-0.24917188	bhanin </s>	0
-0.24917188	khalahya </s>	0
-0.24917188	bwanavayedhunkah </s>	0
-0.24917188	thyamdu </s>	0
-0.24917188	twayalay </s>	0
-0.24917188	desay </s>	0
-0.24917188	nhapanggu </s>	0
-0.24917188	wasayayegu </s>	0
-0.24917188	klinik </s>	0
-0.24917188	chayekugu </s>	0
-0.24917188	than </s>	0
-0.24917188	manutay </s>	0
-0.24917188	nhugu </s>	0
-0.24917188	waa </s>	0
-0.24917188	hilemahsah </s>	0
-0.24917188	prabandh </s>	0
-0.24917188	ashtamanaya </s>	0
-0.24917188	prashikshanay </s>	0
-0.24917188	naghahya </s>	0
-0.24917188	bhani </s>	0
-0.24917188	kaymasta </s>	0
-0.24917188	gyanapakhe </s>	0
-0.24917188	nipun </s>	0
-0.24917188	lichwah </s>	0
-0.24917188	naghatwah </s>	0
-0.24917188	vadayakegu </s>	0
-0.24917188	kendra </s>	0
-3.2231107	<s> akalman	-0.12860847
-2.8285038	<s> nakarmi	-0.22595678
-3.2231107	<s> gugun	-0.12860847
-2.8285038	<s> aupcharik	-0.22595678
-2.376949	<s> shiksha	-0.6512668
-3.2231107	<s> madusan	-0.12860847
-2.1970036	<s> thagu	-0.82735807
-3.2231107	<s> kul	-0.12860847
-3.2231107	<s> purkhaya	-0.12860847
-3.2231107	<s> lajgayapakhen	-0.12860847
-3.2231107	<s> byawaharik	-0.12860847
-3.2231107	<s> gyan	-0.12860847
-1.6687862	<s> wa	-1.3502368
-3.2231107	<s> sip	-0.12860847
-3.2231107	<s> munkadim	-0.12860847
-2.018362	<s> thwayaka	-1.0034493
-2.8285038	<s> chamh	-0.22595678
-2.8285038	<s> prabidhi	-0.22595678
-2.1970036	<s> bikas	-0.82735807
-2.2777226	<s> ale	-0.7481768
-3.2231107	<s> sudharaya	-0.12860847
-2.1970036	<s> khalay	-0.82735807
-1.8246638	<s> katham	-1.1953348
-3.2231107	<s> yogdan	-0.12860847
-3.2231107	<s> biyawm	-0.12860847
-3.2231107	<s> byaktitwa	-0.12860847
-1.4005709	<s> kha	-1.6174085
-1.1758866	<s> .	-1.8415985
-1.7397687	<s> san	-1.2796557
-2.8285038	<s> 1946	-0.22595678
-1.7944835	<s> sa	-1.225298
-3.2231107	<s> swanigalay	-0.12860847
-2.5057764	<s> janma	-0.5263281
-2.376949	<s> jumh	-0.6512668
-1.9720962	<s> bhaju	-1.0492069
-3.2231107	<s> gopalman	-0.12860847
-3.2231107	<s> nakarmiya	-0.12860847
-3.2231107	<s> kay	-0.12860847
-3.2231107	<s> kathmandu	-0.12860847
-3.2231107	<s> metal	-0.12860847
-3.2231107	<s> industries	-0.12860847
-3.2231107	<s> nanya	-0.12860847
-2.376949	<s> he	-0.6512668
-3.2231107	<s> jyas	-0.12860847
-3.2231107	<s> nyakawayachwumha	-0.12860847
-3.2231107	<s> thumha	-0.12860847
-3.2231107	<s> bhajun	-0.12860847
-2.5057764	<s> bishesh	-0.5263281
-2.2777226	<s> yana	-0.7481768
-2.8285038	<s> jal	-0.22595678
-3.2231107	<s> shakti	-0.12860847
-3.2231107	<s> upayogya	-0.12860847
-3.2231107	<s> jwalay	-0.12860847
-3.2231107	<s> paramparagat	-0.12860847
-3.2231107	<s> laghu	-0.12860847
-3.2231107	<s> sanchalanaya	-0.12860847
-3.2231107	<s> adhunik	-0.12860847
-3.2231107	<s> sudharayayegu	-0.12860847
-3.2231107	<s> lagham	-0.12860847
-3.2231107	<s> bidyut	-0.12860847
-3.2231107	<s> nyathanebahagu	-0.12860847
-2.5057764	<s> yagu	-0.5263281
-3.2231107	<s> kathanya	-0.12860847
-3.2231107	<s> chichigwahgu	-0.12860847
-3.2231107	<s> turbine	-0.12860847
-3.2231107	<s> designya	-0.12860847
-2.8285038	<s> thujwahgu	-0.22595678
-3.2231107	<s> sirjanatmak	-0.12860847
-3.2231107	<s> jyaa	-0.12860847
-2.8285038	<s> nintim	-0.22595678
-3.2231107	<s> nandangu	-0.12860847
-3.2231107	<s> rolfex	-0.12860847
-3.2231107	<s> sirpah	-0.12860847
-3.2231107	<s> right	-0.12860847
-3.2231107	<s> livhud	-0.12860847
-3.2231107	<s> awardpakhen	-0.12860847
-3.2231107	<s> antarastriya	-0.12860847
-3.2231107	<s> starya	-0.12860847
-3.2231107	<s> samman	-0.12860847
-3.2231107	<s> byugu	-0.12860847
-3.2231107	<s> 2017	-0.12860847
-3.2231107	<s> madugu	-0.12860847
-2.8285038	<s> amareshman	-0.22595678
-3.2231107	<s> pradhanang	-0.12860847
-2.2777226	<s> yanya	-0.7481768
-3.2231107	<s> thapathali	-0.12860847
-3.2231107	<s> abuju	-0.12860847
-3.2231107	<s> bisheshwar	-0.12860847
-3.2231107	<s> man	-0.12860847
-3.2231107	<s> bishnudeviyaapakhen	-0.12860847
-3.2231107	<s> dumh	-0.12860847
-2.0701506	<s> kaymcha	-0.9522968
-2.5057764	<s> –	-0.5263281
-3.2231107	<s> 1956	-0.12860847
-2.8285038	<s> patna	-0.22595678
-1.9720962	<s> vishwavidyalayapakhen	-1.0492069
-3.2231107	<s> bsc	-0.12860847
-3.2231107	<s> utirna	-0.12860847
-3.2231107	<s> samyuktarajya	-0.12860847
-3.2231107	<s> amerikaya	-0.12860847
-3.2231107	<s> uttar	-0.12860847
-3.2231107	<s> kyalorina	-0.12860847
-3.2231107	<s> ms	-0.12860847
-2.2777226	<s> yanadigu	-0.7481768
-3.2231107	<s> vanavasti	-0.12860847
-2.8285038	<s> vigyanaya	-0.22595678
-2.8285038	<s> gyaata	-0.22595678
-3.2231107	<s> amareshjun	-0.12860847
-3.2231107	<s> rashtriya	-0.12860847
-2.5057764	<s> krishi	-0.5263281
-3.2231107	<s> anusandhan	-0.12860847
-3.2231107	<s> kendray	-0.12860847
-3.2231107	<s> chwanah	-0.12860847
-3.2231107	<s> byavasthapan	-0.12860847
-3.2231107	<s> nitiya	-0.12860847
-2.8285038	<s> jwahmadugu	-0.22595678
-2.8285038	<s> tiba	-0.22595678
-3.2231107	<s> biyawangu	-0.12860847
-2.8285038	<s> keshavraj	-0.22595678
-2.5057764	<s> rajbhandari	-0.5263281
-3.2231107	<s> viratnagaraya	-0.12860847
-3.2231107	<s> madanraj	-0.12860847
-2.5057764	<s> mayju	-0.5263281
-3.2231107	<s> kadamdeviya	-0.12860847
-3.2231107	<s> 1948	-0.12860847
-2.376949	<s> boogu	-0.6512668
-2.376949	<s> tribhuvan	-0.6512668
-2.376949	<s> snatakottar	-0.6512668
-3.2231107	<s> kwachayeke	-0.12860847
-3.2231107	<s> dhunkaḥ	-0.12860847
-3.2231107	<s> japanaya	-0.12860847
-3.2231107	<s> tokyo	-0.12860847
-2.1970036	<s> vigyan	-0.82735807
-2.5057764	<s> vidhay	-0.5263281
-3.2231107	<s> uchchashiksha	-0.12860847
-2.8285038	<s> bwanadil	-0.22595678
-3.2231107	<s> ayurvedic	-0.12860847
-2.8285038	<s> swan,	-0.22595678
-3.2231107	<s> sima	-0.12860847
-2.8285038	<s> jadibutiya	-0.22595678
-2.376949	<s> visheshagya	-0.6512668
-2.5057764	<s> khat	-0.5263281
-3.2231107	<s> napnapan	-0.12860847
-3.2231107	<s> charan	-0.12860847
-3.2231107	<s> kshetraya	-0.12860847
-3.2231107	<s> paryavaran	-0.12860847
-3.2231107	<s> sambandhi	-0.12860847
-2.376949	<s> apalam	-0.6512668
-3.2231107	<s> nhununhugu	-0.12860847
-3.2231107	<s> jadibuti	-0.12860847
-3.2231107	<s> simatat	-0.12860847
-3.2231107	<s> malaḥ	-0.12860847
-2.018362	<s> nepalay	-1.0034493
-2.5057764	<s> dugu	-0.5263281
-3.2231107	<s> vanaspatıya	-0.12860847
-2.8285038	<s> sambandhay	-0.22595678
-2.8285038	<s> biskan	-0.22595678
-2.5057764	<s> saphu	-0.5263281
-2.1970036	<s> nan	-0.82735807
-3.2231107	<s> chwyadigu	-0.12860847
-2.8285038	<s> du	-0.22595678
-2.8285038	<s> kesharilaxmi	-0.22595678
-2.5057764	<s> manandhar	-0.5263281
-2.8285038	<s> yan,	-0.22595678
-3.2231107	<s> asanya	-0.12860847
-3.2231107	<s> jyotiratna	-0.12860847
-3.2231107	<s> veti	-0.12860847
-3.2231107	<s> laxmiya	-0.12860847
-3.2231107	<s> mhaymachha	-0.12860847
-3.2231107	<s> 1942	-0.12860847
-2.8285038	<s> boomha	-0.22595678
-3.2231107	<s> swan–simaya	-0.12860847
-3.2231107	<s> rog	-0.12860847
-3.2231107	<s> khyaḥya	-0.12860847
-2.376949	<s> thwayakalan	-0.6512668
-2.376949	<s> dakkale	-0.6512668
-2.5057764	<s> nhapan	-0.5263281
-3.2231107	<s> vanpastiya	-0.12860847
-3.2231107	<s> lway	-0.12860847
-3.2231107	<s> vishleshan	-0.12860847
-3.2231107	<s> yaigu	-0.12860847
-3.2231107	<s> prayogshala	-0.12860847
-2.5057764	<s> yanadil	-0.5263281
-3.2231107	<s> mhukancha	-0.12860847
-3.2231107	<s> (chyau)ya	-0.12860847
-3.2231107	<s> khetiyayegu	-0.12860847
-3.2231107	<s> vidhi	-0.12860847
-2.8285038	<s> thukiya	-0.22595678
-3.2231107	<s> byawasayikaran	-0.12860847
-3.2231107	<s> yayeguli	-0.12860847
-2.8285038	<s> bhumika	-0.22595678
-3.2231107	<s> mhita	-0.12860847
-2.8285038	<s> dil	-0.22595678
-2.5057764	<s> vidyavaridhi	-0.5263281
-2.376949	<s> upadhi	-0.6512668
-3.2231107	<s> kaḥmha	-0.12860847
-3.2231107	<s> nepaḥmi	-0.12860847
-2.8285038	<s> misa	-0.22595678
-3.2231107	<s> vaigyanikapinigu	-0.12860847
-2.5057764	<s> chhagu	-0.5263281
-3.2231107	<s> sanjal	-0.12860847
-3.2231107	<s> niswaneguli	-0.12860847
-2.5057764	<s> nhaluwah	-0.5263281
-2.8285038	<s> kishorkumar	-0.22595678
-2.376949	<s> pradhan	-0.6512668
-3.2231107	<s> dambarbahadur	-0.12860847
-3.2231107	<s> krishnakumariya	-0.12860847
-3.2231107	<s> 1944	-0.12860847
-2.5057764	<s> bharataya	-0.5263281
-3.2231107	<s> madrasan	-0.12860847
-3.2231107	<s> danta	-0.12860847
-3.2231107	<s> chikitsaya	-0.12860847
-2.8285038	<s> snatak	-0.22595678
-2.8285038	<s> juyawaḥmha	-0.22595678
-2.128962	<s> lipa	-0.8943049
-3.2231107	<s> 1977	-0.12860847
-3.2231107	<s> velayatan	-0.12860847
-3.2231107	<s> frcs	-0.12860847
-3.2231107	<s> kayadil	-0.12860847
-3.2231107	<s> athehe	-0.12860847
-3.2231107	<s> irelandya	-0.12860847
-3.2231107	<s> thuguhe	-0.12860847
-3.2231107	<s> bishay	-0.12860847
-3.2231107	<s> kayaḥ	-0.12860847
-3.2231107	<s> uchcha	-0.12860847
-3.2231107	<s> visheshataḥ	-0.12860847
-3.2231107	<s> mhutu	-0.12860847
-3.2231107	<s> khwaḥya	-0.12860847
-3.2231107	<s> adhuniktam	-0.12860847
-3.2231107	<s> vidhiya	-0.12860847
-3.2231107	<s> shalyachikitsa	-0.12860847
-3.2231107	<s> pravidhiya	-0.12860847
-2.376949	<s> nhapamha	-0.6512668
-3.2231107	<s> manu	-0.12860847
-2.8285038	<s> krishnagopal	-0.22595678
-3.2231107	<s> rajvanshi	-0.12860847
-3.2231107	<s> pyafaḥ	-0.12860847
-3.2231107	<s> twaḥya	-0.12860847
-3.2231107	<s> nilparakram	-0.12860847
-3.2231107	<s> devakumariya	-0.12860847
-3.2231107	<s> 1940	-0.12860847
-3.2231107	<s> gorakhpuram	-0.12860847
-2.8285038	<s> snatakostar	-0.22595678
-3.2231107	<s> uttirna	-0.12860847
-3.2231107	<s> germaniya	-0.12860847
-3.2231107	<s> haymburgapakhen	-0.12860847
-3.2231107	<s> jaliykrishi	-0.12860847
-3.2231107	<s> puwankawaḥgu	-0.12860847
-3.2231107	<s> byawasthit	-0.12860847
-2.8285038	<s> vaigyanik	-0.22595678
-3.2231107	<s> pravidhikathaḥ	-0.12860847
-2.8285038	<s> matsya	-0.22595678
-3.2231107	<s> palanayat	-0.12860847
-3.2231107	<s> nhyankeguli	-0.12860847
-2.8285038	<s> khaḥ,	-0.22595678
-3.2231107	<s> nepaḥdune	-0.12860847
-3.2231107	<s> daipin	-0.12860847
-3.2231107	<s> nyaya	-0.12860847
-3.2231107	<s> prakaraya	-0.12860847
-3.2231107	<s> dhalaḥ	-0.12860847
-3.2231107	<s> palan	-0.12860847
-3.2231107	<s> kriti	-0.12860847
-3.2231107	<s> pithana	-0.12860847
-2.8285038	<s> digu	-0.22595678
-2.8285038	<s> krishna	-0.22595678
-3.2231107	<s> maharajganj,	-0.12860847
-3.2231107	<s> jagatnarayan	-0.12860847
-3.2231107	<s> tulsimayaya	-0.12860847
-3.2231107	<s> 1969	-0.12860847
-3.2231107	<s> kwachayeka	-0.12860847
-2.8285038	<s> dimha	-0.22595678
-2.8285038	<s> velayataya	-0.22595678
-3.2231107	<s> southampton	-0.12860847
-3.2231107	<s> vaidyutik	-0.12860847
-3.2231107	<s> rasayanshastra	-0.12860847
-2.8285038	<s> kayadigu	-0.22595678
-3.2231107	<s> thugu	-0.12860847
-3.2231107	<s> bishayas	-0.12860847
-2.376949	<s> nepayah	-0.6512668
-3.2231107	<s> taḥdanatak	-0.12860847
-3.2231107	<s> trivivi	-0.12860847
-3.2231107	<s> antargat	-0.12860847
-3.2231107	<s> pradhyapan	-0.12860847
-3.2231107	<s> sevay	-0.12860847
-2.2777226	<s> jya	-0.7481768
-2.8285038	<s> kularatna	-0.22595678
-3.2231107	<s> tuladhar	-0.12860847
-3.2231107	<s> asan,	-0.12860847
-3.2231107	<s> asaratna	-0.12860847
-3.2231107	<s> laxmimayaya	-0.12860847
-2.8285038	<s> 1918	-0.22595678
-3.2231107	<s> 1937	-0.12860847
-3.2231107	<s> yanawaḥmha	-0.12860847
-2.8285038	<s> engineer	-0.22595678
-3.2231107	<s> swanigalan	-0.12860847
-3.2231107	<s> pinewanegu	-0.12860847
-3.2231107	<s> lanhpu	-0.12860847
-3.2231107	<s> rajpath	-0.12860847
-2.376949	<s> dayakegu	-0.6512668
-2.5057764	<s> jyay	-0.5263281
-3.2231107	<s> nepaḥyapakhen	-0.12860847
-3.2231107	<s> mu	-0.12860847
-3.2231107	<s> pravidhik	-0.12860847
-3.2231107	<s> pramukh	-0.12860847
-2.8285038	<s> juyah	-0.22595678
-3.2231107	<s> sarvajanik	-0.12860847
-3.2231107	<s> nirmaan	-0.12860847
-2.8285038	<s> vibhagya	-0.22595678
-3.2231107	<s> 1951	-0.12860847
-3.2231107	<s> nisen	-0.12860847
-3.2231107	<s> 1957	-0.12860847
-2.5057764	<s> tak	-0.5263281
-3.2231107	<s> bhalakaya	-0.12860847
-3.2231107	<s> nhusatanisen	-0.12860847
-3.2231107	<s> mumu	-0.12860847
-3.2231107	<s> satakat	-0.12860847
-3.2231107	<s> mhitadil	-0.12860847
-3.2231107	<s> sevakaly	-0.12860847
-2.8285038	<s> london	-0.22595678
-3.2231107	<s> wanaḥ	-0.12860847
-3.2231107	<s> architectural	-0.12860847
-3.2231107	<s> association	-0.12860847
-3.2231107	<s> school	-0.12860847
-3.2231107	<s> of	-0.12860847
-3.2231107	<s> architecturepakhen	-0.12860847
-3.2231107	<s> bwanawal	-0.12860847
-2.5057764	<s> wayakah	-0.5263281
-3.2231107	<s> vishwavidyalaya,	-0.12860847
-3.2231107	<s> engineering	-0.12860847
-3.2231107	<s> sansthanya	-0.12860847
-3.2231107	<s> dean	-0.12860847
-3.2231107	<s> juyadil	-0.12860847
-3.2231107	<s> ramakrishna	-0.12860847
-3.2231107	<s> sharmanap	-0.12860847
-3.2231107	<s> jaanaḥ	-0.12860847
-3.2231107	<s> rajmargaya	-0.12860847
-3.2231107	<s> design	-0.12860847
-3.2231107	<s> nirmaansambandhay	-0.12860847
-3.2231107	<s> nirdeshika	-0.12860847
-3.2231107	<s> pikaya	-0.12860847
-2.8285038	<s> amirbahadur	-0.22595678
-3.2231107	<s> yagyabahadur	-0.12860847
-3.2231107	<s> kumari	-0.12860847
-3.2231107	<s> shresthaya	-0.12860847
-3.2231107	<s> pradhanya	-0.12860847
-3.2231107	<s> yenya	-0.12860847
-3.2231107	<s> faskiyabay	-0.12860847
-3.2231107	<s> 1934	-0.12860847
-2.8285038	<s> jugu	-0.22595678
-2.8285038	<s> bharat	-0.22595678
-2.376949	<s> ,	-0.6512668
-3.2231107	<s> vishva	-0.12860847
-3.2231107	<s> hindu	-0.12860847
-3.2231107	<s> sanra	-0.12860847
-3.2231107	<s> 1955sa	-0.12860847
-2.8285038	<s> aushadhi	-0.22595678
-3.2231107	<s> vigyanay	-0.12860847
-2.8285038	<s> 1966	-0.22595678
-3.2231107	<s> vishwavidyalay	-0.12860847
-3.2231107	<s> velayatapakhen	-0.12860847
-3.2231107	<s> vidyawaridhi	-0.12860847
-2.376949	<s> jul	-0.6512668
-3.2231107	<s> wasah	-0.12860847
-3.2231107	<s> utpadanaya	-0.12860847
-2.5057764	<s> udyog	-0.5263281
-3.2231107	<s> bikasayayeguli	-0.12860847
-3.2231107	<s> thwayakahya	-0.12860847
-3.2231107	<s> lha	-0.12860847
-3.2231107	<s> visheshyanah	-0.12860847
-2.8285038	<s> ukiya	-0.22595678
-3.2231107	<s> lidhasay	-0.12860847
-3.2231107	<s> wasahya	-0.12860847
-3.2231107	<s> nhyakegu	-0.12860847
-2.8285038	<s> vigyansambandhi	-0.22595678
-3.2231107	<s> niti	-0.12860847
-3.2231107	<s> dayakeguli	-0.12860847
-3.2231107	<s> amirbahadurya	-0.12860847
-3.2231107	<s> ukatham	-0.12860847
-3.2231107	<s> nhthanebahagu	-0.12860847
-3.2231107	<s> nepa	-0.12860847
-3.2231107	<s> sarkaraya	-0.12860847
-3.2231107	<s> uchchastariya	-0.12860847
-3.2231107	<s> sallahakar	-0.12860847
-3.2231107	<s> samitiya	-0.12860847
-2.8285038	<s> dujah	-0.22595678
-2.8285038	<s> juyadigu	-0.22595678
-3.2231107	<s> tai	-0.12860847
-3.2231107	<s> shahi	-0.12860847
-3.2231107	<s> limitedaya	-0.12860847
-3.2231107	<s> karyakari	-0.12860847
-3.2231107	<s> nideshak	-0.12860847
-3.2231107	<s> ronasht	-0.12860847
-3.2231107	<s> rikasht	-0.12860847
-3.2231107	<s> shodh	-0.12860847
-3.2231107	<s> sansthayah	-0.12860847
-2.8285038	<s> amritprasad	-0.22595678
-3.2231107	<s> vishayagat	-0.12860847
-3.2231107	<s> lyakham	-0.12860847
-3.2231107	<s> rasayanashastray	-0.12860847
-3.2231107	<s> vigya	-0.12860847
-3.2231107	<s> abu	-0.12860847
-3.2231107	<s> ajarman	-0.12860847
-3.2231107	<s> ma	-0.12860847
-3.2231107	<s> mohanmayaya	-0.12860847
-3.2231107	<s> kokham	-0.12860847
-3.2231107	<s> yen	-0.12860847
-3.2231107	<s> thambahis	-0.12860847
-3.2231107	<s> vishayaya	-0.12860847
-3.2231107	<s> prasar	-0.12860847
-3.2231107	<s> prachar	-0.12860847
-3.2231107	<s> yayegu	-0.12860847
-3.2231107	<s> tatunah	-0.12860847
-3.2231107	<s> janastaram	-0.12860847
-2.8285038	<s> public	-0.22595678
-2.5057764	<s> science	-0.5263281
-3.2231107	<s> college	-0.12860847
-3.2231107	<s> swaneguli	-0.12860847
-3.2231107	<s> nhyaluwa	-0.12860847
-3.2231107	<s> athe	-0.12860847
-3.2231107	<s> nhupustayapint	-0.12860847
-3.2231107	<s> vishay	-0.12860847
-3.2231107	<s> adhyayan	-0.12860847
-3.2231107	<s> yayet	-0.12860847
-3.2231107	<s> abhiyan	-0.12860847
-3.2231107	<s> nhyakal	-0.12860847
-3.2231107	<s> yuropaya	-0.12860847
-3.2231107	<s> alps	-0.12860847
-3.2231107	<s> pahadi	-0.12860847
-3.2231107	<s> lagay	-0.12860847
-3.2231107	<s> hawai	-0.12860847
-3.2231107	<s> durghatanay	-0.12860847
-3.2231107	<s> lanah	-0.12860847
-3.2231107	<s> mant	-0.12860847
-3.2231107	<s> thwayakal	-0.12860847
-2.8285038	<s> shikshaya	-0.22595678
-3.2231107	<s> yanawanggu	-0.12860847
-3.2231107	<s> tibayah	-0.12860847
-3.2231107	<s> hanabana	-0.12860847
-3.2231107	<s> collegeyat	-0.12860847
-3.2231107	<s> amrit	-0.12860847
-3.2231107	<s> campus	-0.12860847
-3.2231107	<s> naan	-0.12860847
-3.2231107	<s> hilabil	-0.12860847
-3.2231107	<s> gairasarkari	-0.12860847
-3.2231107	<s> staray	-0.12860847
-3.2231107	<s> vidyarthipinigu	-0.12860847
-3.2231107	<s> suvidhaya	-0.12860847
-3.2231107	<s> chhatravas	-0.12860847
-3.2231107	<s> amritprasadya	-0.12860847
-3.2231107	<s> gwasah	-0.12860847
-3.2231107	<s> dhwasahgu	-0.12860847
-3.2231107	<s> tri–chandra	-0.12860847
-3.2231107	<s> collegey	-0.12860847
-3.2231107	<s> rasayanashastraya	-0.12860847
-3.2231107	<s> pradhyapak	-0.12860847
-3.2231107	<s> juyadi	-0.12860847
-3.2231107	<s> dhunkumh	-0.12860847
-3.2231107	<s> chhum	-0.12860847
-3.2231107	<s> i	-0.12860847
-3.2231107	<s> shri	-0.12860847
-3.2231107	<s> 5	-0.12860847
-3.2231107	<s> sarkar	-0.12860847
-3.2231107	<s> vanijya	-0.12860847
-3.2231107	<s> up–sachiv	-0.12860847
-3.2231107	<s> sewa	-0.12860847
-2.8285038	<s> ashtaman	-0.22595678
-3.2231107	<s> kalkatta	-0.12860847
-3.2231107	<s> madhyamam	-0.12860847
-2.5057764	<s> wasyahgu	-0.5263281
-3.2231107	<s> lwaya	-0.12860847
-3.2231107	<s> chandrashamsher	-0.12860847
-3.2231107	<s> pradhanmantri	-0.12860847
-3.2231107	<s> juyachwangu	-0.12860847
-3.2231107	<s> ilay	-0.12860847
-3.2231107	<s> darbaraduneyapim	-0.12860847
-3.2231107	<s> manutayat	-0.12860847
-3.2231107	<s> samasya	-0.12860847
-3.2231107	<s> juibale	-0.12860847
-3.2231107	<s> niji	-0.12860847
-2.8285038	<s> chikitsak	-0.22595678
-3.2231107	<s> thwayakayat	-0.12860847
-3.2231107	<s> lajgah	-0.12860847
-3.2231107	<s> biyatahgu	-0.12860847
-2.8285038	<s> yeny	-0.22595678
-3.2231107	<s> naghatwahya	-0.12860847
-3.2231107	<s> bhanin	-0.12860847
-2.8285038	<s> khalahya	-0.22595678
-3.2231107	<s> bwanavayedhunkah	-0.12860847
-2.8285038	<s> thyamdu	-0.22595678
-3.2231107	<s> twayalay	-0.12860847
-3.2231107	<s> desay	-0.12860847
-3.2231107	<s> nhapanggu	-0.12860847
-2.8285038	<s> wasayayegu	-0.22595678
-3.2231107	<s> klinik	-0.12860847
-3.2231107	<s> chayekugu	-0.12860847
-3.2231107	<s> than	-0.12860847
-3.2231107	<s> manutay	-0.12860847
-3.2231107	<s> nhugu	-0.12860847
-2.8285038	<s> waa	-0.22595678
-3.2231107	<s> hilemahsah	-0.12860847
-3.2231107	<s> prabandh	-0.12860847
-3.2231107	<s> ashtamanaya	-0.12860847
-3.2231107	<s> prashikshanay	-0.12860847
-3.2231107	<s> naghahya	-0.12860847
-3.2231107	<s> bhani	-0.12860847
-3.2231107	<s> kaymasta	-0.12860847
-3.2231107	<s> gyanapakhe	-0.12860847
-3.2231107	<s> nipun	-0.12860847
-3.2231107	<s> lichwah	-0.12860847
-3.2231107	<s> naghatwah	-0.12860847
-3.2231107	<s> vadayakegu	-0.12860847
-3.2231107	<s> kendra	-0.12860847

\3-grams:
-0.17049286	<s> akalman </s>
-0.13046618	<s> nakarmi </s>
-0.17049286	<s> gugun </s>
-0.13046618	<s> aupcharik </s>
-0.044530947	<s> shiksha </s>
-0.17049286	<s> madusan </s>
-0.029174352	<s> thagu </s>
-0.17049286	<s> kul </s>
-0.17049286	<s> purkhaya </s>
-0.17049286	<s> lajgayapakhen </s>
-0.17049286	<s> byawaharik </s>
-0.17049286	<s> gyan </s>
-0.008548371	<s> wa </s>
-0.17049286	<s> sip </s>
-0.17049286	<s> munkadim </s>
-0.01923022	<s> thwayaka </s>
-0.13046618	<s> chamh </s>
-0.13046618	<s> prabidhi </s>
-0.029174352	<s> bikas </s>
-0.035252012	<s> ale </s>
-0.17049286	<s> sudharaya </s>
-0.029174352	<s> khalay </s>
-0.012264124	<s> katham </s>
-0.17049286	<s> yogdan </s>
-0.17049286	<s> biyawm </s>
-0.17049286	<s> byaktitwa </s>
-0.004599852	<s> kha </s>
-0.0027391757	<s> . </s>
-0.010074518	<s> san </s>
-0.13046618	<s> 1946 </s>
-0.011435659	<s> sa </s>
-0.17049286	<s> swanigalay </s>
-0.060450546	<s> janma </s>
-0.044530947	<s> jumh </s>
-0.017268412	<s> bhaju </s>
-0.17049286	<s> gopalman </s>
-0.17049286	<s> nakarmiya </s>
-0.17049286	<s> kay </s>
-0.17049286	<s> kathmandu </s>
-0.17049286	<s> metal </s>
-0.17049286	<s> industries </s>
-0.17049286	<s> nanya </s>
-0.044530947	<s> he </s>
-0.17049286	<s> jyas </s>
-0.17049286	<s> nyakawayachwumha </s>
-0.17049286	<s> thumha </s>
-0.17049286	<s> bhajun </s>
-0.060450546	<s> bishesh </s>
-0.035252012	<s> yana </s>
-0.13046618	<s> jal </s>
-0.17049286	<s> shakti </s>
-0.17049286	<s> upayogya </s>
-0.17049286	<s> jwalay </s>
-0.17049286	<s> paramparagat </s>
-0.17049286	<s> laghu </s>
-0.17049286	<s> sanchalanaya </s>
-0.17049286	<s> adhunik </s>
-0.17049286	<s> sudharayayegu </s>
-0.17049286	<s> lagham </s>
-0.17049286	<s> bidyut </s>
-0.17049286	<s> nyathanebahagu </s>
-0.060450546	<s> yagu </s>
-0.17049286	<s> kathanya </s>
-0.17049286	<s> chichigwahgu </s>
-0.17049286	<s> turbine </s>
-0.17049286	<s> designya </s>
-0.13046618	<s> thujwahgu </s>
-0.17049286	<s> sirjanatmak </s>
-0.17049286	<s> jyaa </s>
-0.13046618	<s> nintim </s>
-0.17049286	<s> nandangu </s>
-0.17049286	<s> rolfex </s>
-0.17049286	<s> sirpah </s>
-0.17049286	<s> right </s>
-0.17049286	<s> livhud </s>
-0.17049286	<s> awardpakhen </s>
-0.17049286	<s> antarastriya </s>
-0.17049286	<s> starya </s>
-0.17049286	<s> samman </s>
-0.17049286	<s> byugu </s>
-0.17049286	<s> 2017 </s>
-0.17049286	<s> madugu </s>
-0.13046618	<s> amareshman </s>
-0.17049286	<s> pradhanang </s>
-0.035252012	<s> yanya </s>
-0.17049286	<s> thapathali </s>
-0.17049286	<s> abuju </s>
-0.17049286	<s> bisheshwar </s>
-0.17049286	<s> man </s>
-0.17049286	<s> bishnudeviyaapakhen </s>
-0.17049286	<s> dumh </s>
-0.021694982	<s> kaymcha </s>
-0.060450546	<s> – </s>
-0.17049286	<s> 1956 </s>
-0.13046618	<s> patna </s>
-0.017268412	<s> vishwavidyalayapakhen </s>
-0.17049286	<s> bsc </s>
-0.17049286	<s> utirna </s>
-0.17049286	<s> samyuktarajya </s>
-0.17049286	<s> amerikaya </s>
-0.17049286	<s> uttar </s>
-0.17049286	<s> kyalorina </s>
-0.17049286	<s> ms </s>
-0.035252012	<s> yanadigu </s>
-0.17049286	<s> vanavasti </s>
-0.13046618	<s> vigyanaya </s>
-0.13046618	<s> gyaata </s>
-0.17049286	<s> amareshjun </s>
-0.17049286	<s> rashtriya </s>
-0.060450546	<s> krishi </s>
-0.17049286	<s> anusandhan </s>
-0.17049286	<s> kendray </s>
-0.17049286	<s> chwanah </s>
-0.17049286	<s> byavasthapan </s>
-0.17049286	<s> nitiya </s>
-0.13046618	<s> jwahmadugu </s>
-0.13046618	<s> tiba </s>
-0.17049286	<s> biyawangu </s>
-0.13046618	<s> keshavraj </s>
-0.060450546	<s> rajbhandari </s>
-0.17049286	<s> viratnagaraya </s>
-0.17049286	<s> madanraj </s>
-0.060450546	<s> mayju </s>
-0.17049286	<s> kadamdeviya </s>
-0.17049286	<s> 1948 </s>
-0.044530947	<s> boogu </s>
-0.044530947	<s> tribhuvan </s>
-0.044530947	<s> snatakottar </s>
-0.17049286	<s> kwachayeke </s>
-0.17049286	<s> dhunkaḥ </s>
-0.17049286	<s> japanaya </s>
-0.17049286	<s> tokyo </s>
-0.029174352	<s> vigyan </s>
-0.060450546	<s> vidhay </s>
-0.17049286	<s> uchchashiksha </s>
-0.13046618	<s> bwanadil </s>
-0.17049286	<s> ayurvedic </s>
-0.13046618	<s> swan, </s>
-0.17049286	<s> sima </s>
-0.13046618	<s> jadibutiya </s>
-0.044530947	<s> visheshagya </s>
-0.060450546	<s> khat </s>
-0.17049286	<s> napnapan </s>
-0.17049286	<s> charan </s>
-0.17049286	<s> kshetraya </s>
-0.17049286	<s> paryavaran </s>
-0.17049286	<s> sambandhi </s>
-0.044530947	<s> apalam </s>
-0.17049286	<s> nhununhugu </s>
-0.17049286	<s> jadibuti </s>
-0.17049286	<s> simatat </s>
-0.17049286	<s> malaḥ </s>
-0.01923022	<s> nepalay </s>
-0.060450546	<s> dugu </s>
-0.17049286	<s> vanaspatıya </s>
-0.13046618	<s> sambandhay </s>
-0.13046618	<s> biskan </s>
-0.060450546	<s> saphu </s>
-0.029174352	<s> nan </s>
-0.17049286	<s> chwyadigu </s>
-0.13046618	<s> du </s>
-0.13046618	<s> kesharilaxmi </s>
-0.060450546	<s> manandhar </s>
-0.13046618	<s> yan, </s>
-0.17049286	<s> asanya </s>
-0.17049286	<s> jyotiratna </s>
-0.17049286	<s> veti </s>
-0.17049286	<s> laxmiya </s>
-0.17049286	<s> mhaymachha </s>
-0.17049286	<s> 1942 </s>
-0.13046618	<s> boomha </s>
-0.17049286	<s> swan–simaya </s>
-0.17049286	<s> rog </s>
-0.17049286	<s> khyaḥya </s>
-0.044530947	<s> thwayakalan </s>
-0.044530947	<s> dakkale </s>
-0.060450546	<s> nhapan </s>
-0.17049286	<s> vanpastiya </s>
-0.17049286	<s> lway </s>
-0.17049286	<s> vishleshan </s>
-0.17049286	<s> yaigu </s>
-0.17049286	<s> prayogshala </s>
-0.060450546	<s> yanadil </s>
-0.17049286	<s> mhukancha </s>
-0.17049286	<s> (chyau)ya </s>
-0.17049286	<s> khetiyayegu </s>
-0.17049286	<s> vidhi </s>
-0.13046618	<s> thukiya </s>
-0.17049286	<s> byawasayikaran </s>
-0.17049286	<s> yayeguli </s>
-0.13046618	<s> bhumika </s>
-0.17049286	<s> mhita </s>
-0.13046618	<s> dil </s>
-0.060450546	<s> vidyavaridhi </s>
-0.044530947	<s> upadhi </s>
-0.17049286	<s> kaḥmha </s>
-0.17049286	<s> nepaḥmi </s>
-0.13046618	<s> misa </s>
-0.17049286	<s> vaigyanikapinigu </s>
-0.060450546	<s> chhagu </s>
-0.17049286	<s> sanjal </s>
-0.17049286	<s> niswaneguli </s>
-0.060450546	<s> nhaluwah </s>
-0.13046618	<s> kishorkumar </s>
-0.044530947	<s> pradhan </s>
-0.17049286	<s> dambarbahadur </s>
-0.17049286	<s> krishnakumariya </s>
-0.17049286	<s> 1944 </s>
-0.060450546	<s> bharataya </s>
-0.17049286	<s> madrasan </s>
-0.17049286	<s> danta </s>
-0.17049286	<s> chikitsaya </s>
-0.13046618	<s> snatak </s>
-0.13046618	<s> juyawaḥmha </s>
-0.024884667	<s> lipa </s>
-0.17049286	<s> 1977 </s>
-0.17049286	<s> velayatan </s>
-0.17049286	<s> frcs </s>
-0.17049286	<s> kayadil </s>
-0.17049286	<s> athehe </s>
-0.17049286	<s> irelandya </s>
-0.17049286	<s> thuguhe </s>
-0.17049286	<s> bishay </s>
-0.17049286	<s> kayaḥ </s>
-0.17049286	<s> uchcha </s>
-0.17049286	<s> visheshataḥ </s>
-0.17049286	<s> mhutu </s>
-0.17049286	<s> khwaḥya </s>
-0.17049286	<s> adhuniktam </s>
-0.17049286	<s> vidhiya </s>
-0.17049286	<s> shalyachikitsa </s>
-0.17049286	<s> pravidhiya </s>
-0.044530947	<s> nhapamha </s>
-0.17049286	<s> manu </s>
-0.13046618	<s> krishnagopal </s>
-0.17049286	<s> rajvanshi </s>
-0.17049286	<s> pyafaḥ </s>
-0.17049286	<s> twaḥya </s>
-0.17049286	<s> nilparakram </s>
-0.17049286	<s> devakumariya </s>
-0.17049286	<s> 1940 </s>
-0.17049286	<s> gorakhpuram </s>
-0.13046618	<s> snatakostar </s>
-0.17049286	<s> uttirna </s>
-0.17049286	<s> germaniya </s>
-0.17049286	<s> haymburgapakhen </s>
-0.17049286	<s> jaliykrishi </s>
-0.17049286	<s> puwankawaḥgu </s>
-0.17049286	<s> byawasthit </s>
-0.13046618	<s> vaigyanik </s>
-0.17049286	<s> pravidhikathaḥ </s>
-0.13046618	<s> matsya </s>
-0.17049286	<s> palanayat </s>
-0.17049286	<s> nhyankeguli </s>
-0.13046618	<s> khaḥ, </s>
-0.17049286	<s> nepaḥdune </s>
-0.17049286	<s> daipin </s>
-0.17049286	<s> nyaya </s>
-0.17049286	<s> prakaraya </s>
-0.17049286	<s> dhalaḥ </s>
-0.17049286	<s> palan </s>
-0.17049286	<s> kriti </s>
-0.17049286	<s> pithana </s>
-0.13046618	<s> digu </s>
-0.13046618	<s> krishna </s>
-0.17049286	<s> maharajganj, </s>
-0.17049286	<s> jagatnarayan </s>
-0.17049286	<s> tulsimayaya </s>
-0.17049286	<s> 1969 </s>
-0.17049286	<s> kwachayeka </s>
-0.13046618	<s> dimha </s>
-0.13046618	<s> velayataya </s>
-0.17049286	<s> southampton </s>
-0.17049286	<s> vaidyutik </s>
-0.17049286	<s> rasayanshastra </s>
-0.13046618	<s> kayadigu </s>
-0.17049286	<s> thugu </s>
-0.17049286	<s> bishayas </s>
-0.044530947	<s> nepayah </s>
-0.17049286	<s> taḥdanatak </s>
-0.17049286	<s> trivivi </s>
-0.17049286	<s> antargat </s>
-0.17049286	<s> pradhyapan </s>
-0.17049286	<s> sevay </s>
-0.035252012	<s> jya </s>
-0.13046618	<s> kularatna </s>
-0.17049286	<s> tuladhar </s>
-0.17049286	<s> asan, </s>
-0.17049286	<s> asaratna </s>
-0.17049286	<s> laxmimayaya </s>
-0.13046618	<s> 1918 </s>
-0.17049286	<s> 1937 </s>
-0.17049286	<s> yanawaḥmha </s>
-0.13046618	<s> engineer </s>
-0.17049286	<s> swanigalan </s>
-0.17049286	<s> pinewanegu </s>
-0.17049286	<s> lanhpu </s>
-0.17049286	<s> rajpath </s>
-0.044530947	<s> dayakegu </s>
-0.060450546	<s> jyay </s>
-0.17049286	<s> nepaḥyapakhen </s>
-0.17049286	<s> mu </s>
-0.17049286	<s> pravidhik </s>
-0.17049286	<s> pramukh </s>
-0.13046618	<s> juyah </s>
-0.17049286	<s> sarvajanik </s>
-0.17049286	<s> nirmaan </s>
-0.13046618	<s> vibhagya </s>
-0.17049286	<s> 1951 </s>
-0.17049286	<s> nisen </s>
-0.17049286	<s> 1957 </s>
-0.060450546	<s> tak </s>
-0.17049286	<s> bhalakaya </s>
-0.17049286	<s> nhusatanisen </s>
-0.17049286	<s> mumu </s>
-0.17049286	<s> satakat </s>
-0.17049286	<s> mhitadil </s>
-0.17049286	<s> sevakaly </s>
-0.13046618	<s> london </s>
-0.17049286	<s> wanaḥ </s>
-0.17049286	<s> architectural </s>
-0.17049286	<s> association </s>
-0.17049286	<s> school </s>
-0.17049286	<s> of </s>
-0.17049286	<s> architecturepakhen </s>
-0.17049286	<s> bwanawal </s>
-0.060450546	<s> wayakah </s>
-0.17049286	<s> vishwavidyalaya, </s>
-0.17049286	<s> engineering </s>
-0.17049286	<s> sansthanya </s>
-0.17049286	<s> dean </s>
-0.17049286	<s> juyadil </s>
-0.17049286	<s> ramakrishna </s>
-0.17049286	<s> sharmanap </s>
-0.17049286	<s> jaanaḥ </s>
-0.17049286	<s> rajmargaya </s>
-0.17049286	<s> design </s>
-0.17049286	<s> nirmaansambandhay </s>
-0.17049286	<s> nirdeshika </s>
-0.17049286	<s> pikaya </s>
-0.13046618	<s> amirbahadur </s>
-0.17049286	<s> yagyabahadur </s>
-0.17049286	<s> kumari </s>
-0.17049286	<s> shresthaya </s>
-0.17049286	<s> pradhanya </s>
-0.17049286	<s> yenya </s>
-0.17049286	<s> faskiyabay </s>
-0.17049286	<s> 1934 </s>
-0.13046618	<s> jugu </s>
-0.13046618	<s> bharat </s>
-0.044530947	<s> , </s>
-0.17049286	<s> vishva </s>
-0.17049286	<s> hindu </s>
-0.17049286	<s> sanra </s>
-0.17049286	<s> 1955sa </s>
-0.13046618	<s> aushadhi </s>
-0.17049286	<s> vigyanay </s>
-0.13046618	<s> 1966 </s>
-0.17049286	<s> vishwavidyalay </s>
-0.17049286	<s> velayatapakhen </s>
-0.17049286	<s> vidyawaridhi </s>
-0.044530947	<s> jul </s>
-0.17049286	<s> wasah </s>
-0.17049286	<s> utpadanaya </s>
-0.060450546	<s> udyog </s>
-0.17049286	<s> bikasayayeguli </s>
-0.17049286	<s> thwayakahya </s>
-0.17049286	<s> lha </s>
-0.17049286	<s> visheshyanah </s>
-0.13046618	<s> ukiya </s>
-0.17049286	<s> lidhasay </s>
-0.17049286	<s> wasahya </s>
-0.17049286	<s> nhyakegu </s>
-0.13046618	<s> vigyansambandhi </s>
-0.17049286	<s> niti </s>
-0.17049286	<s> dayakeguli </s>
-0.17049286	<s> amirbahadurya </s>
-0.17049286	<s> ukatham </s>
-0.17049286	<s> nhthanebahagu </s>
-0.17049286	<s> nepa </s>
-0.17049286	<s> sarkaraya </s>
-0.17049286	<s> uchchastariya </s>
-0.17049286	<s> sallahakar </s>
-0.17049286	<s> samitiya </s>
-0.13046618	<s> dujah </s>
-0.13046618	<s> juyadigu </s>
-0.17049286	<s> tai </s>
-0.17049286	<s> shahi </s>
-0.17049286	<s> limitedaya </s>
-0.17049286	<s> karyakari </s>
-0.17049286	<s> nideshak </s>
-0.17049286	<s> ronasht </s>
-0.17049286	<s> rikasht </s>
-0.17049286	<s> shodh </s>
-0.17049286	<s> sansthayah </s>
-0.13046618	<s> amritprasad </s>
-0.17049286	<s> vishayagat </s>
-0.17049286	<s> lyakham </s>
-0.17049286	<s> rasayanashastray </s>
-0.17049286	<s> vigya </s>
-0.17049286	<s> abu </s>
-0.17049286	<s> ajarman </s>
-0.17049286	<s> ma </s>
-0.17049286	<s> mohanmayaya </s>
-0.17049286	<s> kokham </s>
-0.17049286	<s> yen </s>
-0.17049286	<s> thambahis </s>
-0.17049286	<s> vishayaya </s>
-0.17049286	<s> prasar </s>
-0.17049286	<s> prachar </s>
-0.17049286	<s> yayegu </s>
-0.17049286	<s> tatunah </s>
-0.17049286	<s> janastaram </s>
-0.13046618	<s> public </s>
-0.060450546	<s> science </s>
-0.17049286	<s> college </s>
-0.17049286	<s> swaneguli </s>
-0.17049286	<s> nhyaluwa </s>
-0.17049286	<s> athe </s>
-0.17049286	<s> nhupustayapint </s>
-0.17049286	<s> vishay </s>
-0.17049286	<s> adhyayan </s>
-0.17049286	<s> yayet </s>
-0.17049286	<s> abhiyan </s>
-0.17049286	<s> nhyakal </s>
-0.17049286	<s> yuropaya </s>
-0.17049286	<s> alps </s>
-0.17049286	<s> pahadi </s>
-0.17049286	<s> lagay </s>
-0.17049286	<s> hawai </s>
-0.17049286	<s> durghatanay </s>
-0.17049286	<s> lanah </s>
-0.17049286	<s> mant </s>
-0.17049286	<s> thwayakal </s>
-0.13046618	<s> shikshaya </s>
-0.17049286	<s> yanawanggu </s>
-0.17049286	<s> tibayah </s>
-0.17049286	<s> hanabana </s>
-0.17049286	<s> collegeyat </s>
-0.17049286	<s> amrit </s>
-0.17049286	<s> campus </s>
-0.17049286	<s> naan </s>
-0.17049286	<s> hilabil </s>
-0.17049286	<s> gairasarkari </s>
-0.17049286	<s> staray </s>
-0.17049286	<s> vidyarthipinigu </s>
-0.17049286	<s> suvidhaya </s>
-0.17049286	<s> chhatravas </s>
-0.17049286	<s> amritprasadya </s>
-0.17049286	<s> gwasah </s>
-0.17049286	<s> dhwasahgu </s>
-0.17049286	<s> tri–chandra </s>
-0.17049286	<s> collegey </s>
-0.17049286	<s> rasayanashastraya </s>
-0.17049286	<s> pradhyapak </s>
-0.17049286	<s> juyadi </s>
-0.17049286	<s> dhunkumh </s>
-0.17049286	<s> chhum </s>
-0.17049286	<s> i </s>
-0.17049286	<s> shri </s>
-0.17049286	<s> 5 </s>
-0.17049286	<s> sarkar </s>
-0.17049286	<s> vanijya </s>
-0.17049286	<s> up–sachiv </s>
-0.17049286	<s> sewa </s>
-0.13046618	<s> ashtaman </s>
-0.17049286	<s> kalkatta </s>
-0.17049286	<s> madhyamam </s>
-0.060450546	<s> wasyahgu </s>
-0.17049286	<s> lwaya </s>
-0.17049286	<s> chandrashamsher </s>
-0.17049286	<s> pradhanmantri </s>
-0.17049286	<s> juyachwangu </s>
-0.17049286	<s> ilay </s>
-0.17049286	<s> darbaraduneyapim </s>
-0.17049286	<s> manutayat </s>
-0.17049286	<s> samasya </s>
-0.17049286	<s> juibale </s>
-0.17049286	<s> niji </s>
-0.13046618	<s> chikitsak </s>
-0.17049286	<s> thwayakayat </s>
-0.17049286	<s> lajgah </s>
-0.17049286	<s> biyatahgu </s>
-0.13046618	<s> yeny </s>
-0.17049286	<s> naghatwahya </s>
-0.17049286	<s> bhanin </s>
-0.13046618	<s> khalahya </s>
-0.17049286	<s> bwanavayedhunkah </s>
-0.13046618	<s> thyamdu </s>
-0.17049286	<s> twayalay </s>
-0.17049286	<s> desay </s>
-0.17049286	<s> nhapanggu </s>
-0.13046618	<s> wasayayegu </s>
-0.17049286	<s> klinik </s>
-0.17049286	<s> chayekugu </s>
-0.17049286	<s> than </s>
-0.17049286	<s> manutay </s>
-0.17049286	<s> nhugu </s>
-0.13046618	<s> waa </s>
-0.17049286	<s> hilemahsah </s>
-0.17049286	<s> prabandh </s>
-0.17049286	<s> ashtamanaya </s>
-0.17049286	<s> prashikshanay </s>
-0.17049286	<s> naghahya </s>
-0.17049286	<s> bhani </s>
-0.17049286	<s> kaymasta </s>
-0.17049286	<s> gyanapakhe </s>
-0.17049286	<s> nipun </s>
-0.17049286	<s> lichwah </s>
-0.17049286	<s> naghatwah </s>
-0.17049286	<s> vadayakegu </s>
-0.17049286	<s> kendra </s>

\end\
